digraph Tree {
node [shape=box, style="filled, rounded", color="black", fontname=helvetica] ;
edge [fontname=helvetica] ;
0 [label=<Title &le; 1.5<br/>gini = 0.5<br/>samples = 596<br/>value = [298.0, 298.0]>, fillcolor="#ffffff"] ;
1 [label=<Pclass &le; 1.5<br/>gini = 0.326<br/>samples = 349<br/>value = [240.784, 62.027]>, fillcolor="#eca16c"] ;
0 -> 1 [labeldistance=2.5, labelangle=45, headlabel="True"] ;
5 [label=<Fare &le; 26.144<br/>gini = 0.489<br/>samples = 69<br/>value = [38.144, 28.317]>, fillcolor="#f8dfcc"] ;
1 -> 5 ;
17 [label=<gini = 0.0<br/>samples = 7<br/>value = [5.563, 0.0]>, fillcolor="#e58139"] ;
5 -> 17 ;
18 [label=<gini = 0.498<br/>samples = 62<br/>value = [32.581, 28.317]>, fillcolor="#fcefe5"] ;
5 -> 18 ;
6 [label=<gini = 0.245<br/>samples = 280<br/>value = [202.64, 33.71]>, fillcolor="#e9965a"] ;
1 -> 6 ;
2 [label=<SibSp &le; 2.5<br/>gini = 0.314<br/>samples = 247<br/>value = [57.216, 235.973]>, fillcolor="#69b5eb"] ;
0 -> 2 [labeldistance=2.5, labelangle=-45, headlabel="False"] ;
3 [label=<Title &le; 4.5<br/>gini = 0.257<br/>samples = 224<br/>value = [41.323, 231.928]>, fillcolor="#5caeea"] ;
2 -> 3 ;
7 [label=<Pclass &le; 2.5<br/>gini = 0.221<br/>samples = 208<br/>value = [32.581, 225.186]>, fillcolor="#56abe9"] ;
3 -> 7 ;
9 [label=<gini = 0.059<br/>samples = 119<br/>value = [4.768, 152.371]>, fillcolor="#3fa0e6"] ;
7 -> 9 ;
10 [label=<Age &le; 27.5<br/>gini = 0.4<br/>samples = 89<br/>value = [27.813, 72.814]>, fillcolor="#85c2ef"] ;
7 -> 10 ;
13 [label=<gini = 0.307<br/>samples = 67<br/>value = [15.099, 64.724]>, fillcolor="#67b4eb"] ;
10 -> 13 ;
14 [label=<gini = 0.475<br/>samples = 22<br/>value = [12.715, 8.09]>, fillcolor="#f6d1b7"] ;
10 -> 14 ;
8 [label=<Fare &le; 29.11<br/>gini = 0.492<br/>samples = 16<br/>value = [8.741, 6.742]>, fillcolor="#f9e2d2"] ;
3 -> 8 ;
11 [label=<gini = -0.0<br/>samples = 10<br/>value = [7.947, 0.0]>, fillcolor="#e58139"] ;
8 -> 11 ;
12 [label=<gini = 0.189<br/>samples = 6<br/>value = [0.795, 6.742]>, fillcolor="#50a9e8"] ;
8 -> 12 ;
4 [label=<Pclass &le; 2.0<br/>gini = 0.323<br/>samples = 23<br/>value = [15.893, 4.045]>, fillcolor="#eca16b"] ;
2 -> 4 ;
15 [label=<gini = 0.0<br/>samples = 2<br/>value = [0.0, 2.697]>, fillcolor="#399de5"] ;
4 -> 15 ;
16 [label=<gini = 0.144<br/>samples = 21<br/>value = [15.893, 1.348]>, fillcolor="#e78c4a"] ;
4 -> 16 ;
}